<?xml version="1.0"?>
<opencv_storage>
<stage3>
  <maxWeakCount>10</maxWeakCount>
  <stageThreshold>-4.8190373182296753e-01</stageThreshold>
  <weakClassifiers>
    <_>
      <internalNodes>
        0 -1 817934 2.4528015404939651e-02</internalNodes>
      <leafValues>
        1.2048192322254181e-02 8.7831515073776245e-01</leafValues></_>
    <_>
      <internalNodes>
        0 -1 1102743 2.1967127919197083e-02</internalNodes>
      <leafValues>
        -3.2678383588790894e-01 6.3651621341705322e-01</leafValues></_>
    <_>
      <internalNodes>
        0 -1 1390646 -2.9090285301208496e-02</internalNodes>
      <leafValues>
        4.3056029081344604e-01 -5.1975375413894653e-01</leafValues></_>
    <_>
      <internalNodes>
        0 -1 2199122 3.7228770088404417e-04</internalNodes>
      <leafValues>
        -2.3726253211498260e-01 7.5096738338470459e-01</leafValues></_>
    <_>
      <internalNodes>
        0 -1 2199123 4.0549150435253978e-04</internalNodes>
      <leafValues>
        -2.6968809962272644e-01 7.6305752992630005e-01</leafValues></_>
    <_>
      <internalNodes>
        0 -1 2307883 4.9602281069383025e-04</internalNodes>
      <leafValues>
        -1.5727762877941132e-01 7.2609686851501465e-01</leafValues></_>
    <_>
      <internalNodes>
        0 -1 2307883 -9.7326061222702265e-04</internalNodes>
      <leafValues>
        8.2276922464370728e-01 -2.4403797090053558e-01</leafValues></_>
    <_>
      <internalNodes>
        0 -1 2276009 4.6727954759262502e-04</internalNodes>
      <leafValues>
        -1.6043023765087128e-01 7.6765245199203491e-01</leafValues></_>
    <_>
      <internalNodes>
        0 -1 2239246 -4.8802106175571680e-04</internalNodes>
      <leafValues>
        8.8124483823776245e-01 -1.4992444217205048e-01</leafValues></_>
    <_>
      <internalNodes>
        0 -1 65725 -1.4434240758419037e-02</internalNodes>
      <leafValues>
        5.4595279693603516e-01 -2.5836041569709778e-01</leafValues></_></weakClassifiers></stage3>
</opencv_storage>
