<?xml version="1.0"?>
<opencv_storage>
<stage19>
  <maxWeakCount>36</maxWeakCount>
  <stageThreshold>-3.2016047835350037e-01</stageThreshold>
  <weakClassifiers>
    <_>
      <internalNodes>
        0 -1 1328507 8.9854197576642036e-03</internalNodes>
      <leafValues>
        1.0917030274868011e-01 7.9723691940307617e-01</leafValues></_>
    <_>
      <internalNodes>
        0 -1 1769900 -3.6315783858299255e-02</internalNodes>
      <leafValues>
        3.8495692610740662e-01 -1.8937976658344269e-01</leafValues></_>
    <_>
      <internalNodes>
        0 -1 1807004 -3.9820920210331678e-04</internalNodes>
      <leafValues>
        6.5322750806808472e-01 -8.8321059942245483e-02</leafValues></_>
    <_>
      <internalNodes>
        0 -1 1747634 6.6356535535305738e-04</internalNodes>
      <leafValues>
        -1.3248364627361298e-01 6.1483013629913330e-01</leafValues></_>
    <_>
      <internalNodes>
        0 -1 461528 -9.3111479654908180e-03</internalNodes>
      <leafValues>
        2.3650979995727539e-01 -2.4033740162849426e-01</leafValues></_>
    <_>
      <internalNodes>
        0 -1 2371844 3.9133464451879263e-04</internalNodes>
      <leafValues>
        -1.4081522822380066e-01 3.8753178715705872e-01</leafValues></_>
    <_>
      <internalNodes>
        0 -1 2373697 6.7921134177595377e-04</internalNodes>
      <leafValues>
        -1.5909175574779510e-01 3.9898815751075745e-01</leafValues></_>
    <_>
      <internalNodes>
        0 -1 688457 1.4266587095335126e-03</internalNodes>
      <leafValues>
        1.0569622367620468e-01 -5.9509867429733276e-01</leafValues></_>
    <_>
      <internalNodes>
        0 -1 2342942 4.4074089964851737e-04</internalNodes>
      <leafValues>
        -1.3315767049789429e-01 4.4550934433937073e-01</leafValues></_>
    <_>
      <internalNodes>
        0 -1 2293218 -2.4187107919715345e-04</internalNodes>
      <leafValues>
        -4.6377801895141602e-01 1.3028138875961304e-01</leafValues></_>
    <_>
      <internalNodes>
        0 -1 1255892 9.8634911410044879e-05</internalNodes>
      <leafValues>
        -1.9409108161926270e-01 3.1014615297317505e-01</leafValues></_>
    <_>
      <internalNodes>
        0 -1 1087193 6.3693514093756676e-03</internalNodes>
      <leafValues>
        -4.4185131788253784e-01 1.2682640552520752e-01</leafValues></_>
    <_>
      <internalNodes>
        0 -1 1865864 -6.0408255085349083e-03</internalNodes>
      <leafValues>
        7.9189884662628174e-01 -7.4814058840274811e-02</leafValues></_>
    <_>
      <internalNodes>
        0 -1 194744 -8.8973622769117355e-04</internalNodes>
      <leafValues>
        -5.9783089160919189e-01 1.0033345222473145e-01</leafValues></_>
    <_>
      <internalNodes>
        0 -1 1180388 3.2807347452035174e-05</internalNodes>
      <leafValues>
        -1.9920758903026581e-01 2.9015439748764038e-01</leafValues></_>
    <_>
      <internalNodes>
        0 -1 1621669 2.7633697027340531e-04</internalNodes>
      <leafValues>
        -1.0242743790149689e-01 5.0859916210174561e-01</leafValues></_>
    <_>
      <internalNodes>
        0 -1 1735590 -3.4564565867185593e-03</internalNodes>
      <leafValues>
        3.3895051479339600e-01 -1.4993694424629211e-01</leafValues></_>
    <_>
      <internalNodes>
        0 -1 1167212 -5.1368717104196548e-03</internalNodes>
      <leafValues>
        -3.9760944247245789e-01 1.3703709840774536e-01</leafValues></_>
    <_>
      <internalNodes>
        0 -1 835943 -2.1706006373278797e-04</internalNodes>
      <leafValues>
        1.2681269645690918e-01 -4.3800398707389832e-01</leafValues></_>
    <_>
      <internalNodes>
        0 -1 2300957 -2.2398391738533974e-03</internalNodes>
      <leafValues>
        4.6852639317512512e-01 -1.2440100312232971e-01</leafValues></_>
    <_>
      <internalNodes>
        0 -1 1968777 -1.1248120572417974e-03</internalNodes>
      <leafValues>
        5.9843212366104126e-01 -8.4125325083732605e-02</leafValues></_>
    <_>
      <internalNodes>
        0 -1 1200913 -9.7629142692312598e-04</internalNodes>
      <leafValues>
        -5.0073736906051636e-01 1.1086041480302811e-01</leafValues></_>
    <_>
      <internalNodes>
        0 -1 2238538 7.9349015140905976e-04</internalNodes>
      <leafValues>
        -1.2480124086141586e-01 4.4252976775169373e-01</leafValues></_>
    <_>
      <internalNodes>
        0 -1 1468053 1.1589152738451958e-02</internalNodes>
      <leafValues>
        8.9101813733577728e-02 -6.3164955377578735e-01</leafValues></_>
    <_>
      <internalNodes>
        0 -1 2363780 -5.3467242651095148e-06</internalNodes>
      <leafValues>
        2.3812553286552429e-01 -2.2318410873413086e-01</leafValues></_>
    <_>
      <internalNodes>
        0 -1 1621669 -2.9039999935775995e-04</internalNodes>
      <leafValues>
        5.1141220331192017e-01 -1.0557287186384201e-01</leafValues></_>
    <_>
      <internalNodes>
        0 -1 2505941 -1.9193670595996082e-04</internalNodes>
      <leafValues>
        -5.1183027029037476e-01 1.1797672510147095e-01</leafValues></_>
    <_>
      <internalNodes>
        0 -1 2193542 -1.0471038520336151e-02</internalNodes>
      <leafValues>
        3.3177739381790161e-01 -1.6599977016448975e-01</leafValues></_>
    <_>
      <internalNodes>
        0 -1 1614720 1.0341858796891756e-05</internalNodes>
      <leafValues>
        2.0558542013168335e-01 -2.6518845558166504e-01</leafValues></_>
    <_>
      <internalNodes>
        0 -1 2370473 3.1408871291205287e-04</internalNodes>
      <leafValues>
        -1.3407754898071289e-01 4.0367332100868225e-01</leafValues></_>
    <_>
      <internalNodes>
        0 -1 1617572 7.0081595331430435e-03</internalNodes>
      <leafValues>
        -2.6432466506958008e-01 1.9766132533550262e-01</leafValues></_>
    <_>
      <internalNodes>
        0 -1 1322244 3.6920439451932907e-02</internalNodes>
      <leafValues>
        -1.2026069313287735e-01 4.7109490633010864e-01</leafValues></_>
    <_>
      <internalNodes>
        0 -1 1848897 -4.2642608284950256e-02</internalNodes>
      <leafValues>
        -6.3253784179687500e-01 1.0517687350511551e-01</leafValues></_>
    <_>
      <internalNodes>
        0 -1 1250472 1.5555175195913762e-04</internalNodes>
      <leafValues>
        -1.8935100734233856e-01 2.9373130202293396e-01</leafValues></_>
    <_>
      <internalNodes>
        0 -1 1399279 6.2560262449551374e-05</internalNodes>
      <leafValues>
        -2.0819894969463348e-01 2.7841889858245850e-01</leafValues></_>
    <_>
      <internalNodes>
        0 -1 1244563 6.7615695297718048e-03</internalNodes>
      <leafValues>
        8.2759514451026917e-02 -8.0686503648757935e-01</leafValues></_></weakClassifiers></stage19>
</opencv_storage>
