<?xml version="1.0"?>
<opencv_storage>
<stage5>
  <maxWeakCount>14</maxWeakCount>
  <stageThreshold>-5.0283479690551758e-01</stageThreshold>
  <weakClassifiers>
    <_>
      <internalNodes>
        0 -1 117641 -1.3677056878805161e-02</internalNodes>
      <leafValues>
        8.6702972650527954e-01 1.7204301059246063e-01</leafValues></_>
    <_>
      <internalNodes>
        0 -1 63800 3.4089036285877228e-02</internalNodes>
      <leafValues>
        -2.5292232632637024e-01 6.2175726890563965e-01</leafValues></_>
    <_>
      <internalNodes>
        0 -1 68346 1.2047049403190613e-01</internalNodes>
      <leafValues>
        -2.0976004004478455e-01 5.8882552385330200e-01</leafValues></_>
    <_>
      <internalNodes>
        0 -1 138275 1.1591194197535515e-03</internalNodes>
      <leafValues>
        -1.6688004136085510e-01 6.9906169176101685e-01</leafValues></_>
    <_>
      <internalNodes>
        0 -1 138275 -1.1013715993613005e-03</internalNodes>
      <leafValues>
        6.5257644653320312e-01 -2.3494257032871246e-01</leafValues></_>
    <_>
      <internalNodes>
        0 -1 7012 -9.8158136010169983e-02</internalNodes>
      <leafValues>
        5.6815254688262939e-01 -2.2485911846160889e-01</leafValues></_>
    <_>
      <internalNodes>
        0 -1 150829 2.3258160799741745e-03</internalNodes>
      <leafValues>
        -1.4799748361110687e-01 7.7679401636123657e-01</leafValues></_>
    <_>
      <internalNodes>
        0 -1 150829 -2.7777990326285362e-03</internalNodes>
      <leafValues>
        7.5444847345352173e-01 -1.4878639578819275e-01</leafValues></_>
    <_>
      <internalNodes>
        0 -1 137856 -1.7315649893134832e-03</internalNodes>
      <leafValues>
        6.8075054883956909e-01 -1.3039772212505341e-01</leafValues></_>
    <_>
      <internalNodes>
        0 -1 138082 -1.4919835375621915e-03</internalNodes>
      <leafValues>
        6.9776159524917603e-01 -1.4170712232589722e-01</leafValues></_>
    <_>
      <internalNodes>
        0 -1 147409 -2.0162970758974552e-03</internalNodes>
      <leafValues>
        6.2037026882171631e-01 -1.4604385197162628e-01</leafValues></_>
    <_>
      <internalNodes>
        0 -1 77562 2.0335078239440918e-02</internalNodes>
      <leafValues>
        -4.0129807591438293e-01 2.5104323029518127e-01</leafValues></_>
    <_>
      <internalNodes>
        0 -1 126864 -1.6289378982037306e-03</internalNodes>
      <leafValues>
        6.3809865713119507e-01 -1.8269290030002594e-01</leafValues></_>
    <_>
      <internalNodes>
        0 -1 76228 2.6119334623217583e-02</internalNodes>
      <leafValues>
        -5.0850635766983032e-01 2.2159983217716217e-01</leafValues></_></weakClassifiers></stage5>
</opencv_storage>
