<?xml version="1.0"?>
<opencv_storage>
<stage12>
  <maxWeakCount>22</maxWeakCount>
  <stageThreshold>-3.9712488651275635e-01</stageThreshold>
  <weakClassifiers>
    <_>
      <internalNodes>
        0 -1 49480 1.4444672269746661e-03</internalNodes>
      <leafValues>
        8.1929934024810791e-01 -1.8518517911434174e-01</leafValues></_>
    <_>
      <internalNodes>
        0 -1 70420 1.3121053343638778e-03</internalNodes>
      <leafValues>
        4.2069941759109497e-01 -6.3018912076950073e-01</leafValues></_>
    <_>
      <internalNodes>
        0 -1 35159 5.8840926736593246e-02</internalNodes>
      <leafValues>
        -3.0360290408134460e-01 3.7433946132659912e-01</leafValues></_>
    <_>
      <internalNodes>
        0 -1 161471 1.4282027259469032e-03</internalNodes>
      <leafValues>
        1.6088971495628357e-01 -6.2855756282806396e-01</leafValues></_>
    <_>
      <internalNodes>
        0 -1 86536 -3.7280522286891937e-02</internalNodes>
      <leafValues>
        1.9057661294937134e-01 -4.2543044686317444e-01</leafValues></_>
    <_>
      <internalNodes>
        0 -1 10024 3.2200240530073643e-03</internalNodes>
      <leafValues>
        1.7657807469367981e-01 -4.9655693769454956e-01</leafValues></_>
    <_>
      <internalNodes>
        0 -1 106746 1.0709859197959304e-03</internalNodes>
      <leafValues>
        1.4580421149730682e-01 -5.1771581172943115e-01</leafValues></_>
    <_>
      <internalNodes>
        0 -1 151131 1.8662025686353445e-03</internalNodes>
      <leafValues>
        -1.5969511866569519e-01 5.5786496400833130e-01</leafValues></_>
    <_>
      <internalNodes>
        0 -1 143195 1.9945409148931503e-03</internalNodes>
      <leafValues>
        -1.6918852925300598e-01 4.9441605806350708e-01</leafValues></_>
    <_>
      <internalNodes>
        0 -1 147554 1.8780641257762909e-03</internalNodes>
      <leafValues>
        -1.3357061147689819e-01 6.3010269403457642e-01</leafValues></_>
    <_>
      <internalNodes>
        0 -1 162005 -1.5025956090539694e-03</internalNodes>
      <leafValues>
        -5.8147454261779785e-01 1.6927611827850342e-01</leafValues></_>
    <_>
      <internalNodes>
        0 -1 52821 -6.4829271286725998e-04</internalNodes>
      <leafValues>
        -4.5637553930282593e-01 1.6140650212764740e-01</leafValues></_>
    <_>
      <internalNodes>
        0 -1 150830 -1.8708256538957357e-03</internalNodes>
      <leafValues>
        5.5312263965606689e-01 -1.4134076237678528e-01</leafValues></_>
    <_>
      <internalNodes>
        0 -1 149393 9.2360936105251312e-04</internalNodes>
      <leafValues>
        1.4672717452049255e-01 -5.2889680862426758e-01</leafValues></_>
    <_>
      <internalNodes>
        0 -1 133967 -1.0219655930995941e-02</internalNodes>
      <leafValues>
        1.8023927509784698e-01 -3.6809030175209045e-01</leafValues></_>
    <_>
      <internalNodes>
        0 -1 20468 -3.8718037307262421e-02</internalNodes>
      <leafValues>
        3.3264216780662537e-01 -2.3451961576938629e-01</leafValues></_>
    <_>
      <internalNodes>
        0 -1 147046 1.3123531243763864e-04</internalNodes>
      <leafValues>
        -2.1048054099082947e-01 3.5029509663581848e-01</leafValues></_>
    <_>
      <internalNodes>
        0 -1 146845 -2.2623157128691673e-03</internalNodes>
      <leafValues>
        5.3838068246841431e-01 -1.3960479199886322e-01</leafValues></_>
    <_>
      <internalNodes>
        0 -1 48739 -8.9929078239947557e-04</internalNodes>
      <leafValues>
        -6.2808495759963989e-01 1.4293889701366425e-01</leafValues></_>
    <_>
      <internalNodes>
        0 -1 143024 2.1655661985278130e-03</internalNodes>
      <leafValues>
        -1.4359803497791290e-01 5.3475499153137207e-01</leafValues></_>
    <_>
      <internalNodes>
        0 -1 70716 -6.5526447724550962e-04</internalNodes>
      <leafValues>
        -4.8611909151077271e-01 1.5041032433509827e-01</leafValues></_>
    <_>
      <internalNodes>
        0 -1 105081 1.8662652000784874e-03</internalNodes>
      <leafValues>
        -1.5093000233173370e-01 4.6371674537658691e-01</leafValues></_></weakClassifiers></stage12>
</opencv_storage>
