<?xml version="1.0"?>
<opencv_storage>
<stage15>
  <maxWeakCount>36</maxWeakCount>
  <stageThreshold>-3.3776128292083740e-01</stageThreshold>
  <weakClassifiers>
    <_>
      <internalNodes>
        0 -1 95551 3.0962063465267420e-03</internalNodes>
      <leafValues>
        -1.2328767031431198e-01 7.9260736703872681e-01</leafValues></_>
    <_>
      <internalNodes>
        0 -1 110329 -6.4343838021159172e-03</internalNodes>
      <leafValues>
        3.6930954456329346e-01 -3.7449190020561218e-01</leafValues></_>
    <_>
      <internalNodes>
        0 -1 161271 -1.5188512625172734e-03</internalNodes>
      <leafValues>
        -4.8902857303619385e-01 1.4718453586101532e-01</leafValues></_>
    <_>
      <internalNodes>
        0 -1 132399 -2.2213216288946569e-04</internalNodes>
      <leafValues>
        1.5266890823841095e-01 -4.0329170227050781e-01</leafValues></_>
    <_>
      <internalNodes>
        0 -1 76331 -3.0645079095847905e-04</internalNodes>
      <leafValues>
        2.0003297924995422e-01 -3.1889736652374268e-01</leafValues></_>
    <_>
      <internalNodes>
        0 -1 147698 -2.1857516840100288e-03</internalNodes>
      <leafValues>
        6.4886021614074707e-01 -1.0247999429702759e-01</leafValues></_>
    <_>
      <internalNodes>
        0 -1 162011 -1.5106652863323689e-03</internalNodes>
      <leafValues>
        -4.6489849686622620e-01 1.1044184863567352e-01</leafValues></_>
    <_>
      <internalNodes>
        0 -1 162032 1.4714554417878389e-03</internalNodes>
      <leafValues>
        1.3442912697792053e-01 -5.1791101694107056e-01</leafValues></_>
    <_>
      <internalNodes>
        0 -1 147553 2.0054006017744541e-03</internalNodes>
      <leafValues>
        -1.5138047933578491e-01 4.3984204530715942e-01</leafValues></_>
    <_>
      <internalNodes>
        0 -1 29709 -1.4905927702784538e-02</internalNodes>
      <leafValues>
        1.8653184175491333e-01 -3.1556892395019531e-01</leafValues></_>
    <_>
      <internalNodes>
        0 -1 146630 2.0497613586485386e-03</internalNodes>
      <leafValues>
        -1.2949681282043457e-01 4.3701362609863281e-01</leafValues></_>
    <_>
      <internalNodes>
        0 -1 150311 4.6027693897485733e-03</internalNodes>
      <leafValues>
        -1.4980009198188782e-01 4.2213639616966248e-01</leafValues></_>
    <_>
      <internalNodes>
        0 -1 5846 2.5099529884755611e-03</internalNodes>
      <leafValues>
        1.0008591413497925e-01 -5.5411279201507568e-01</leafValues></_>
    <_>
      <internalNodes>
        0 -1 146846 2.0082897972315550e-03</internalNodes>
      <leafValues>
        -9.4991602003574371e-02 6.0036927461624146e-01</leafValues></_>
    <_>
      <internalNodes>
        0 -1 48490 2.8034215793013573e-03</internalNodes>
      <leafValues>
        9.1810211539268494e-02 -6.7181921005249023e-01</leafValues></_>
    <_>
      <internalNodes>
        0 -1 150287 -3.6374803166836500e-03</internalNodes>
      <leafValues>
        6.8216496706008911e-01 -1.0192406922578812e-01</leafValues></_>
    <_>
      <internalNodes>
        0 -1 143357 1.7799681518226862e-03</internalNodes>
      <leafValues>
        -8.8229261338710785e-02 5.0583612918853760e-01</leafValues></_>
    <_>
      <internalNodes>
        0 -1 155437 1.1911182664334774e-03</internalNodes>
      <leafValues>
        1.2338514626026154e-01 -4.0560585260391235e-01</leafValues></_>
    <_>
      <internalNodes>
        0 -1 113076 8.2724762614816427e-04</internalNodes>
      <leafValues>
        -1.5706092119216919e-01 3.2697656750679016e-01</leafValues></_>
    <_>
      <internalNodes>
        0 -1 86271 2.6165368035435677e-04</internalNodes>
      <leafValues>
        -1.6616889834403992e-01 2.8513056039810181e-01</leafValues></_>
    <_>
      <internalNodes>
        0 -1 84155 -6.4922665478661656e-04</internalNodes>
      <leafValues>
        2.4413579702377319e-01 -2.1379776298999786e-01</leafValues></_>
    <_>
      <internalNodes>
        0 -1 12388 4.4529244303703308e-02</internalNodes>
      <leafValues>
        -9.8339572548866272e-02 5.5006933212280273e-01</leafValues></_>
    <_>
      <internalNodes>
        0 -1 120077 4.1069262661039829e-03</internalNodes>
      <leafValues>
        -1.8100233376026154e-01 3.0614984035491943e-01</leafValues></_>
    <_>
      <internalNodes>
        0 -1 151663 1.5839964617043734e-03</internalNodes>
      <leafValues>
        1.0042142868041992e-01 -5.1211851835250854e-01</leafValues></_>
    <_>
      <internalNodes>
        0 -1 86918 2.9906895360909402e-04</internalNodes>
      <leafValues>
        -8.3841133117675781e-01 4.8960544168949127e-02</leafValues></_>
    <_>
      <internalNodes>
        0 -1 68242 1.6472205519676208e-02</internalNodes>
      <leafValues>
        -9.4817504286766052e-02 5.7748579978942871e-01</leafValues></_>
    <_>
      <internalNodes>
        0 -1 143197 7.0424965815618634e-04</internalNodes>
      <leafValues>
        -1.5168620645999908e-01 3.4440061450004578e-01</leafValues></_>
    <_>
      <internalNodes>
        0 -1 151663 -1.6808469081297517e-03</internalNodes>
      <leafValues>
        -4.7459733486175537e-01 1.0409870743751526e-01</leafValues></_>
    <_>
      <internalNodes>
        0 -1 120566 2.1933959797024727e-03</internalNodes>
      <leafValues>
        -1.0862827301025391e-01 4.5974546670913696e-01</leafValues></_>
    <_>
      <internalNodes>
        0 -1 113583 -3.0078948475420475e-03</internalNodes>
      <leafValues>
        4.3160313367843628e-01 -1.2512853741645813e-01</leafValues></_>
    <_>
      <internalNodes>
        0 -1 158459 -2.9336204752326012e-03</internalNodes>
      <leafValues>
        -6.3248461484909058e-01 8.4386207163333893e-02</leafValues></_>
    <_>
      <internalNodes>
        0 -1 141896 2.2788399364799261e-03</internalNodes>
      <leafValues>
        -9.5834158360958099e-02 5.8380663394927979e-01</leafValues></_>
    <_>
      <internalNodes>
        0 -1 136790 -1.9409934757277369e-03</internalNodes>
      <leafValues>
        5.1057058572769165e-01 -1.0318440198898315e-01</leafValues></_>
    <_>
      <internalNodes>
        0 -1 159026 -6.8466737866401672e-03</internalNodes>
      <leafValues>
        -7.4909341335296631e-01 7.9367250204086304e-02</leafValues></_>
    <_>
      <internalNodes>
        0 -1 133840 3.0137316789478064e-03</internalNodes>
      <leafValues>
        5.5990800261497498e-02 -6.4486998319625854e-01</leafValues></_>
    <_>
      <internalNodes>
        0 -1 94792 2.4054426699876785e-02</internalNodes>
      <leafValues>
        5.5834963917732239e-02 -7.0041733980178833e-01</leafValues></_></weakClassifiers></stage15>
</opencv_storage>
